{
  "overview": {
    "dataset": {
      "totalStudents": 10000,
      "placedCount": 4197,
      "notPlacedCount": 5803,
      "placementRate": 0.4197,
      "averages": {
        "cgpa": 7.698010000000001,
        "aptitude": 79.4499,
        "softSkills": 4.32396,
        "sscMarks": 69.1594,
        "hscMarks": 74.5015
      },
      "placementRateLabel": "41.97%"
    },
    "trainingInfo": {
      "algorithms": [
        "Logistic Regression",
        "Random Forest",
        "SVM"
      ],
      "trainSize": 8000,
      "testSize": 2000,
      "featureCount": 10
    },
    "metrics": {
      "logisticRegression": {
        "accuracy": 0.8005,
        "accuracyLabel": "80.05%",
        "precision": 0.7551912568306011,
        "precisionLabel": "75.52%",
        "recall": 0.7979214780600462,
        "recallLabel": "79.79%",
        "f1Score": 0.7759685569904547,
        "f1ScoreLabel": "77.60%",
        "confusionMatrix": {
          "truePositive": 691,
          "trueNegative": 910,
          "falsePositive": 224,
          "falseNegative": 175
        }
      },
      "randomForest": {
        "accuracy": 0.801,
        "accuracyLabel": "80.10%",
        "precision": 0.7571428571428571,
        "precisionLabel": "75.71%",
        "recall": 0.7956120092378753,
        "recallLabel": "79.56%",
        "f1Score": 0.775900900900901,
        "f1ScoreLabel": "77.59%",
        "confusionMatrix": {
          "truePositive": 689,
          "trueNegative": 913,
          "falsePositive": 221,
          "falseNegative": 177
        }
      },
      "svm": {
        "accuracy": 0.7925,
        "accuracyLabel": "79.25%",
        "precision": 0.746448087431694,
        "precisionLabel": "74.64%",
        "recall": 0.7886836027713626,
        "recallLabel": "78.87%",
        "f1Score": 0.7669848399775407,
        "f1ScoreLabel": "76.70%",
        "confusionMatrix": {
          "truePositive": 683,
          "trueNegative": 902,
          "falsePositive": 232,
          "falseNegative": 183
        }
      }
    },
    "featureImpact": [
      {
        "key": "AptitudeTestScore",
        "label": "Aptitude Test Score",
        "weight": 0.4672113942288773,
        "impact": 1.0
      },
      {
        "key": "PlacementTraining",
        "label": "Placement Training",
        "weight": 0.35706807732304924,
        "impact": 0.7642537869017143
      },
      {
        "key": "SSC_Marks",
        "label": "SSC Marks",
        "weight": 0.3192499345419595,
        "impact": 0.6833093937464322
      },
      {
        "key": "ExtracurricularActivities",
        "label": "Extracurricular Activities",
        "weight": 0.31785066172313925,
        "impact": 0.6803144479122671
      },
      {
        "key": "HSC_Marks",
        "label": "HSC Marks",
        "weight": 0.2833553395784909,
        "impact": 0.6064820830111881
      },
      {
        "key": "SoftSkillsRating",
        "label": "Soft Skills Rating",
        "weight": 0.26196067279564744,
        "impact": 0.5606898205640042
      },
      {
        "key": "Projects",
        "label": "Projects",
        "weight": 0.2609064561449537,
        "impact": 0.5584334187216783
      },
      {
        "key": "CGPA",
        "label": "CGPA",
        "weight": 0.24127455491848326,
        "impact": 0.5164141069733582
      },
      {
        "key": "Workshops/Certifications",
        "label": "Workshops & Certifications",
        "weight": 0.1317389817414518,
        "impact": 0.28196868348830456
      },
      {
        "key": "Internships",
        "label": "Internships",
        "weight": 0.03357716556979121,
        "impact": 0.07186718043383687
      }
    ],
    "createdAt": "2026-05-01T09:19:01.239831+00:00"
  },
  "predictor": {
    "featureConfig": [
      {
        "key": "CGPA",
        "type": "number",
        "label": "CGPA"
      },
      {
        "key": "Internships",
        "type": "number",
        "label": "Internships"
      },
      {
        "key": "Projects",
        "type": "number",
        "label": "Projects"
      },
      {
        "key": "Workshops/Certifications",
        "type": "number",
        "label": "Workshops & Certifications"
      },
      {
        "key": "AptitudeTestScore",
        "type": "number",
        "label": "Aptitude Test Score"
      },
      {
        "key": "SoftSkillsRating",
        "type": "number",
        "label": "Soft Skills Rating"
      },
      {
        "key": "ExtracurricularActivities",
        "type": "binary",
        "label": "Extracurricular Activities"
      },
      {
        "key": "PlacementTraining",
        "type": "binary",
        "label": "Placement Training"
      },
      {
        "key": "SSC_Marks",
        "type": "number",
        "label": "SSC Marks"
      },
      {
        "key": "HSC_Marks",
        "type": "number",
        "label": "HSC Marks"
      }
    ],
    "means": [
      7.6956874999999485,
      1.04,
      2.019125,
      1.00325,
      79.357625,
      4.322349999999939,
      0.582,
      0.7285,
      69.132625,
      74.398875
    ],
    "stds": [
      0.6404120957194216,
      0.6604165352260856,
      0.8674729012337856,
      0.9038746801963121,
      8.144521432188364,
      0.4102413649304507,
      0.49323016939353614,
      0.44473334707439466,
      10.432834495446267,
      8.91246451518185
    ],
    "weights": [
      0.24127455491848326,
      0.03357716556979121,
      0.2609064561449537,
      0.1317389817414518,
      0.4672113942288773,
      0.26196067279564744,
      0.31785066172313925,
      0.35706807732304924,
      0.3192499345419595,
      0.2833553395784909
    ],
    "bias": -0.5613963057435677,
    "placedStudentsMatrix": [
      [
        1.8805274104749066,
        -1.5747637203601643,
        1.1307269640410962,
        1.102752429997836,
        1.3066912633982086,
        -0.7857569410500271,
        0.847474517858392,
        0.6104781703149048,
        0.8499487846635002,
        0.8528645457215493
      ],
      [
        -0.3055649656025289,
        -0.06056783539846791,
        -1.1748205604469293,
        1.102752429997836,
        0.6927816504602091,
        0.18927881641878241,
        0.847474517858392,
        0.6104781703149048,
        1.137502469264693,
        0.6284597251926014
      ],
      [
        0.9436306778702921,
        -0.06056783539846791,
        -0.022046798202916558,
        1.102752429997836,
        0.815563573047809,
        0.43303775578598375,
        0.847474517858392,
        0.6104781703149048,
        0.4665438718619098,
        1.5260790073083932
      ],
      [
        0.1628834006997783,
        -0.06056783539846791,
        1.1307269640410962,
        1.102752429997836,
        -0.04390988506539026,
        0.18927881641878241,
        0.847474517858392,
        0.6104781703149048,
        1.5209073820662833,
        1.3016741867794452
      ],
      [
        0.9436306778702921,
        1.4536280495632286,
        1.1307269640410962,
        1.102752429997836,
        1.3066912633982086,
        1.1643145738875897,
        0.847474517858392,
        0.6104781703149048,
        1.2333536974650905,
        1.5260790073083932
      ],
      [
        0.3190328561338816,
        -0.06056783539846791,
        1.1307269640410962,
        1.102752429997836,
        1.3066912633982086,
        1.1643145738875897,
        0.847474517858392,
        0.6104781703149048,
        0.17899018726071703,
        1.4138765970439193
      ],
      [
        0.9436306778702921,
        1.4536280495632286,
        1.1307269640410962,
        1.102752429997836,
        1.3066912633982086,
        0.43303775578598375,
        0.847474517858392,
        0.6104781703149048,
        1.4250561538658857,
        0.9650669559860233
      ],
      [
        1.4120790441725979,
        -1.5747637203601643,
        1.1307269640410962,
        -1.1099436923956145,
        0.5699997278726092,
        1.1643145738875897,
        0.847474517858392,
        0.6104781703149048,
        -0.6836708665428614,
        0.4040549046636534
      ],
      [
        0.7874812224361875,
        1.4536280495632286,
        1.1307269640410962,
        1.102752429997836,
        1.3066912633982086,
        0.9205556345203886,
        0.847474517858392,
        0.6104781703149048,
        1.4250561538658857,
        1.3016741867794452
      ],
      [
        -1.3986111536412467,
        1.4536280495632286,
        1.1307269640410962,
        -1.1099436923956145,
        -0.7806014205909897,
        0.18927881641878241,
        0.847474517858392,
        0.6104781703149048,
        0.2748414154611146,
        0.8528645457215493
      ],
      [
        -0.14941551016842697,
        1.4536280495632286,
        -1.1748205604469293,
        -1.1099436923956145,
        0.5699997278726092,
        0.18927881641878241,
        -1.1799764818028327,
        0.6104781703149048,
        0.7540975564631026,
        0.06744767387023148
      ],
      [
        -0.46171442103663085,
        -0.06056783539846791,
        -0.022046798202916558,
        -0.0035956311988893297,
        -0.9033833431785896,
        -2.004551637886038,
        -1.1799764818028327,
        0.6104781703149048,
        1.2333536974650905,
        -0.6057667877166124
      ],
      [
        0.0067339452656763645,
        -1.5747637203601643,
        -1.1748205604469293,
        -1.1099436923956145,
        -0.28947373024059003,
        -2.2483105772532403,
        -1.1799764818028327,
        0.6104781703149048,
        -1.3546294639456444,
        -0.26915955692319044
      ],
      [
        1.0997801333043942,
        1.4536280495632286,
        1.1307269640410962,
        1.102752429997836,
        1.3066912633982086,
        0.6767966951531851,
        0.847474517858392,
        0.6104781703149048,
        -1.3546294639456444,
        0.6284597251926014
      ],
      [
        1.255929588738496,
        -0.06056783539846791,
        1.1307269640410962,
        -1.1099436923956145,
        1.3066912633982086,
        1.1643145738875897,
        0.847474517858392,
        0.6104781703149048,
        1.5209073820662833,
        1.1894717765149712
      ],
      [
        1.4120790441725979,
        -0.06056783539846791,
        -0.022046798202916558,
        1.102752429997836,
        -0.5350375754157899,
        -0.05448012294842107,
        0.847474517858392,
        0.6104781703149048,
        -0.6836708665428614,
        0.6284597251926014
      ],
      [
        -1.2424616982071433,
        -1.5747637203601643,
        -1.1748205604469293,
        -1.1099436923956145,
        -1.1489471883537894,
        -1.0295158804172295,
        -1.1799764818028327,
        0.6104781703149048,
        0.9458000128638978,
        -0.7179691979810864
      ],
      [
        0.9436306778702921,
        -0.06056783539846791,
        -0.022046798202916558,
        1.102752429997836,
        1.1839093408106087,
        1.1643145738875897,
        0.847474517858392,
        0.6104781703149048,
        0.5623951000623074,
        0.7406621354570754
      ],
      [
        0.7874812224361875,
        -0.06056783539846791,
        -0.022046798202916558,
        1.102752429997836,
        -0.28947373024059003,
        -0.29823906231562236,
        -1.1799764818028327,
        0.6104781703149048,
        0.2748414154611146,
        -0.26915955692319044
      ],
      [
        1.255929588738496,
        1.4536280495632286,
        1.1307269640410962,
        2.2091004911945613,
        1.3066912633982086,
        0.9205556345203886,
        0.847474517858392,
        0.6104781703149048,
        0.9458000128638978,
        1.3016741867794452
      ],
      [
        -1.5547606090753485,
        -1.5747637203601643,
        1.1307269640410962,
        1.102752429997836,
        1.0611274182230088,
        -0.29823906231562236,
        0.847474517858392,
        0.6104781703149048,
        0.2748414154611146,
        1.3016741867794452
      ],
      [
        1.4120790441725979,
        1.4536280495632286,
        1.1307269640410962,
        -0.0035956311988893297,
        1.3066912633982086,
        1.1643145738875897,
        0.847474517858392,
        0.6104781703149048,
        -0.5878196383424638,
        1.0772693662504973
      ],
      [
        0.9436306778702921,
        1.4536280495632286,
        1.1307269640410962,
        1.102752429997836,
        0.6927816504602091,
        1.1643145738875897,
        0.847474517858392,
        0.6104781703149048,
        0.7540975564631026,
        0.9650669559860233
      ],
      [
        1.4120790441725979,
        1.4536280495632286,
        1.1307269640410962,
        1.102752429997836,
        1.0611274182230088,
        0.9205556345203886,
        0.847474517858392,
        0.6104781703149048,
        1.0416512410642953,
        1.4138765970439193
      ],
      [
        -1.5547606090753485,
        -0.06056783539846791,
        -1.1748205604469293,
        1.102752429997836,
        -0.7806014205909897,
        0.43303775578598375,
        -1.1799764818028327,
        -1.6380602102188149,
        -1.3546294639456444,
        -0.9423740185100343
      ],
      [
        0.6313317670020855,
        -0.06056783539846791,
        1.1307269640410962,
        1.102752429997836,
        1.3066912633982086,
        0.6767966951531851,
        0.847474517858392,
        0.6104781703149048,
        0.7540975564631026,
        1.4138765970439193
      ],
      [
        0.6313317670020855,
        1.4536280495632286,
        1.1307269640410962,
        1.102752429997836,
        1.3066912633982086,
        0.9205556345203886,
        0.847474517858392,
        0.6104781703149048,
        1.2333536974650905,
        0.8528645457215493
      ],
      [
        1.7243779550408045,
        1.4536280495632286,
        1.1307269640410962,
        1.102752429997836,
        1.3066912633982086,
        1.1643145738875897,
        0.847474517858392,
        0.6104781703149048,
        1.6167586102666809,
        1.5260790073083932
      ],
      [
        1.0997801333043942,
        1.4536280495632286,
        -0.022046798202916558,
        1.102752429997836,
        0.20165396010980954,
        0.6767966951531851,
        0.847474517858392,
        0.6104781703149048,
        0.7540975564631026,
        0.8528645457215493
      ],
      [
        -1.710910064509452,
        -1.5747637203601643,
        -1.1748205604469293,
        -1.1099436923956145,
        -0.41225565282818993,
        -1.0295158804172295,
        -1.1799764818028327,
        0.6104781703149048,
        0.8499487846635002,
        -0.6057667877166124
      ],
      [
        0.7874812224361875,
        -0.06056783539846791,
        -0.022046798202916558,
        -0.0035956311988893297,
        0.815563573047809,
        -0.05448012294842107,
        0.847474517858392,
        0.6104781703149048,
        1.6167586102666809,
        -1.2789812493034562
      ],
      [
        0.4751823115679836,
        -1.5747637203601643,
        1.1307269640410962,
        -1.1099436923956145,
        -1.3945110335289892,
        -0.29823906231562236,
        0.847474517858392,
        -1.6380602102188149,
        -0.4919684101420661,
        0.9650669559860233
      ],
      [
        0.0067339452656763645,
        -0.06056783539846791,
        -1.1748205604469293,
        -1.1099436923956145,
        -0.6578194980033898,
        -0.5419980016828259,
        -1.1799764818028327,
        0.6104781703149048,
        -1.1629270075448492,
        -0.7179691979810864
      ],
      [
        0.6313317670020855,
        1.4536280495632286,
        1.1307269640410962,
        1.102752429997836,
        1.3066912633982086,
        1.1643145738875897,
        0.847474517858392,
        0.6104781703149048,
        1.0416512410642953,
        1.3016741867794452
      ],
      [
        0.6313317670020855,
        -0.06056783539846791,
        1.1307269640410962,
        -0.0035956311988893297,
        1.3066912633982086,
        0.6767966951531851,
        0.847474517858392,
        0.6104781703149048,
        0.3706926436615122,
        1.3016741867794452
      ],
      [
        0.7874812224361875,
        -0.06056783539846791,
        1.1307269640410962,
        -1.1099436923956145,
        0.4472178052850093,
        1.1643145738875897,
        0.847474517858392,
        0.6104781703149048,
        0.17899018726071703,
        1.0772693662504973
      ],
      [
        -1.5547606090753485,
        -0.06056783539846791,
        -0.022046798202916558,
        -0.0035956311988893297,
        -0.6578194980033898,
        1.1643145738875897,
        0.847474517858392,
        0.6104781703149048,
        0.2748414154611146,
        -1.1667788390389822
      ],
      [
        0.9436306778702921,
        1.4536280495632286,
        1.1307269640410962,
        -0.0035956311988893297,
        1.3066912633982086,
        -0.29823906231562236,
        0.847474517858392,
        0.6104781703149048,
        1.2333536974650905,
        0.9650669559860233
      ],
      [
        -0.14941551016842697,
        -1.5747637203601643,
        -0.022046798202916558,
        -1.1099436923956145,
        0.815563573047809,
        1.1643145738875897,
        0.847474517858392,
        0.6104781703149048,
        -1.1629270075448492,
        -0.26915955692319044
      ],
      [
        1.255929588738496,
        -0.06056783539846791,
        -0.022046798202916558,
        1.102752429997836,
        -0.04390988506539026,
        -1.0295158804172295,
        0.847474517858392,
        0.6104781703149048,
        0.658246328262705,
        -0.9423740185100343
      ],
      [
        1.7243779550408045,
        -0.06056783539846791,
        1.1307269640410962,
        -1.1099436923956145,
        -0.41225565282818993,
        0.9205556345203886,
        0.847474517858392,
        0.6104781703149048,
        0.5623951000623074,
        1.0772693662504973
      ],
      [
        0.6313317670020855,
        -0.06056783539846791,
        1.1307269640410962,
        1.102752429997836,
        1.1839093408106087,
        0.6767966951531851,
        0.847474517858392,
        0.6104781703149048,
        1.6167586102666809,
        0.6284597251926014
      ],
      [
        0.1628834006997783,
        1.4536280495632286,
        -0.022046798202916558,
        1.102752429997836,
        1.3066912633982086,
        1.1643145738875897,
        0.847474517858392,
        -1.6380602102188149,
        1.137502469264693,
        0.8528645457215493
      ],
      [
        0.0067339452656763645,
        -0.06056783539846791,
        1.1307269640410962,
        -0.0035956311988893297,
        1.1839093408106087,
        0.6767966951531851,
        -1.1799764818028327,
        0.6104781703149048,
        -0.7795220947432588,
        1.0772693662504973
      ],
      [
        1.255929588738496,
        1.4536280495632286,
        1.1307269640410962,
        1.102752429997836,
        1.3066912633982086,
        1.1643145738875897,
        0.847474517858392,
        0.6104781703149048,
        0.2748414154611146,
        1.4138765970439193
      ],
      [
        0.6313317670020855,
        -0.06056783539846791,
        1.1307269640410962,
        1.102752429997836,
        1.3066912633982086,
        1.1643145738875897,
        0.847474517858392,
        0.6104781703149048,
        0.9458000128638978,
        1.0772693662504973
      ],
      [
        1.5682284996067,
        1.4536280495632286,
        1.1307269640410962,
        1.102752429997836,
        1.3066912633982086,
        1.1643145738875897,
        0.847474517858392,
        0.6104781703149048,
        0.9458000128638978,
        1.1894717765149712
      ],
      [
        1.4120790441725979,
        1.4536280495632286,
        1.1307269640410962,
        -1.1099436923956145,
        0.20165396010980954,
        0.9205556345203886,
        0.847474517858392,
        -1.6380602102188149,
        0.17899018726071703,
        0.9650669559860233
      ],
      [
        1.7243779550408045,
        -0.06056783539846791,
        1.1307269640410962,
        1.102752429997836,
        1.3066912633982086,
        0.6767966951531851,
        0.847474517858392,
        0.6104781703149048,
        1.329204925665488,
        0.9650669559860233
      ],
      [
        1.5682284996067,
        1.4536280495632286,
        1.1307269640410962,
        1.102752429997836,
        0.20165396010980954,
        0.9205556345203886,
        0.847474517858392,
        0.6104781703149048,
        1.5209073820662833,
        0.5162573149281274
      ],
      [
        0.0067339452656763645,
        -0.06056783539846791,
        1.1307269640410962,
        1.102752429997836,
        1.3066912633982086,
        1.1643145738875897,
        0.847474517858392,
        -1.6380602102188149,
        1.0416512410642953,
        1.1894717765149712
      ],
      [
        0.0067339452656763645,
        -0.06056783539846791,
        -0.022046798202916558,
        -1.1099436923956145,
        -0.7806014205909897,
        -0.7857569410500271,
        -1.1799764818028327,
        0.6104781703149048,
        -0.3961171819416685,
        0.06744767387023148
      ],
      [
        1.255929588738496,
        -0.06056783539846791,
        -0.022046798202916558,
        1.102752429997836,
        1.3066912633982086,
        1.1643145738875897,
        0.847474517858392,
        0.6104781703149048,
        1.0416512410642953,
        1.3016741867794452
      ],
      [
        0.4751823115679836,
        -0.06056783539846791,
        1.1307269640410962,
        -1.1099436923956145,
        0.07887203752220964,
        0.18927881641878241,
        0.847474517858392,
        0.6104781703149048,
        1.5209073820662833,
        1.0772693662504973
      ],
      [
        1.0997801333043942,
        -0.06056783539846791,
        -1.1748205604469293,
        -1.1099436923956145,
        0.20165396010980954,
        0.6767966951531851,
        0.847474517858392,
        -1.6380602102188149,
        0.8499487846635002,
        0.8528645457215493
      ],
      [
        0.7874812224361875,
        1.4536280495632286,
        1.1307269640410962,
        1.102752429997836,
        1.3066912633982086,
        0.18927881641878241,
        0.847474517858392,
        0.6104781703149048,
        2.0001635230682715,
        0.7406621354570754
      ],
      [
        0.6313317670020855,
        1.4536280495632286,
        -0.022046798202916558,
        1.102752429997836,
        1.3066912633982086,
        0.43303775578598375,
        0.847474517858392,
        0.6104781703149048,
        0.3706926436615122,
        0.8528645457215493
      ],
      [
        1.8805274104749066,
        1.4536280495632286,
        1.1307269640410962,
        1.102752429997836,
        1.3066912633982086,
        1.1643145738875897,
        0.847474517858392,
        0.6104781703149048,
        -0.012712269140078156,
        1.1894717765149712
      ],
      [
        -0.14941551016842697,
        -0.06056783539846791,
        -1.1748205604469293,
        -1.1099436923956145,
        -0.7806014205909897,
        -0.05448012294842107,
        -1.1799764818028327,
        0.6104781703149048,
        -1.3546294639456444,
        0.17965008413470546
      ],
      [
        1.0997801333043942,
        -0.06056783539846791,
        1.1307269640410962,
        1.102752429997836,
        1.3066912633982086,
        0.6767966951531851,
        0.847474517858392,
        0.6104781703149048,
        -0.20441472554087334,
        0.6284597251926014
      ],
      [
        1.0997801333043942,
        -0.06056783539846791,
        -0.022046798202916558,
        -0.0035956311988893297,
        -0.6578194980033898,
        -0.05448012294842107,
        0.847474517858392,
        0.6104781703149048,
        -0.971224551144054,
        0.6284597251926014
      ],
      [
        -0.14941551016842697,
        -0.06056783539846791,
        -0.022046798202916558,
        -1.1099436923956145,
        -0.6578194980033898,
        -1.5170337591516334,
        -1.1799764818028327,
        0.6104781703149048,
        -1.0670757793444516,
        -0.04475473639424249
      ],
      [
        0.3190328561338816,
        -0.06056783539846791,
        1.1307269640410962,
        -0.0035956311988893297,
        0.07887203752220964,
        -0.29823906231562236,
        0.847474517858392,
        0.6104781703149048,
        -1.2587782357452468,
        0.8528645457215493
      ],
      [
        1.0997801333043942,
        1.4536280495632286,
        1.1307269640410962,
        1.102752429997836,
        1.3066912633982086,
        1.1643145738875897,
        0.847474517858392,
        0.6104781703149048,
        2.0001635230682715,
        1.1894717765149712
      ],
      [
        1.4120790441725979,
        -1.5747637203601643,
        1.1307269640410962,
        1.102752429997836,
        1.3066912633982086,
        1.1643145738875897,
        0.847474517858392,
        0.6104781703149048,
        0.3706926436615122,
        0.4040549046636534
      ],
      [
        0.1628834006997783,
        -1.5747637203601643,
        -1.1748205604469293,
        -1.1099436923956145,
        0.20165396010980954,
        -1.0295158804172295,
        0.847474517858392,
        0.6104781703149048,
        0.9458000128638978,
        -1.0545764287745083
      ],
      [
        0.6313317670020855,
        1.4536280495632286,
        1.1307269640410962,
        2.2091004911945613,
        1.3066912633982086,
        1.1643145738875897,
        0.847474517858392,
        0.6104781703149048,
        1.0416512410642953,
        0.9650669559860233
      ],
      [
        0.0067339452656763645,
        -1.5747637203601643,
        -1.1748205604469293,
        -1.1099436923956145,
        0.20165396010980954,
        1.1643145738875897,
        0.847474517858392,
        0.6104781703149048,
        -0.012712269140078156,
        -1.2789812493034562
      ],
      [
        1.0997801333043942,
        -0.06056783539846791,
        1.1307269640410962,
        1.102752429997836,
        1.3066912633982086,
        0.43303775578598375,
        0.847474517858392,
        0.6104781703149048,
        0.9458000128638978,
        1.3016741867794452
      ],
      [
        -1.2424616982071433,
        -1.5747637203601643,
        -1.1748205604469293,
        -1.1099436923956145,
        -0.7806014205909897,
        -0.5419980016828259,
        -1.1799764818028327,
        0.6104781703149048,
        -1.3546294639456444,
        -0.6057667877166124
      ],
      [
        -1.8670595199435538,
        -0.06056783539846791,
        -1.1748205604469293,
        1.102752429997836,
        0.6927816504602091,
        -0.05448012294842107,
        0.847474517858392,
        -1.6380602102188149,
        -0.6836708665428614,
        -0.26915955692319044
      ],
      [
        0.9436306778702921,
        1.4536280495632286,
        1.1307269640410962,
        -1.1099436923956145,
        -1.0261652657661895,
        0.6767966951531851,
        0.847474517858392,
        0.6104781703149048,
        0.7540975564631026,
        0.8528645457215493
      ],
      [
        0.4751823115679836,
        1.4536280495632286,
        1.1307269640410962,
        1.102752429997836,
        1.3066912633982086,
        1.1643145738875897,
        0.847474517858392,
        0.6104781703149048,
        0.8499487846635002,
        1.3016741867794452
      ],
      [
        1.255929588738496,
        -0.06056783539846791,
        1.1307269640410962,
        1.102752429997836,
        1.3066912633982086,
        1.1643145738875897,
        0.847474517858392,
        0.6104781703149048,
        -0.7795220947432588,
        1.3016741867794452
      ],
      [
        1.0997801333043942,
        -1.5747637203601643,
        -1.1748205604469293,
        1.102752429997836,
        1.0611274182230088,
        1.1643145738875897,
        0.847474517858392,
        0.6104781703149048,
        0.4665438718619098,
        0.8528645457215493
      ],
      [
        0.7874812224361875,
        -0.06056783539846791,
        1.1307269640410962,
        -1.1099436923956145,
        0.3244358826974094,
        1.1643145738875897,
        0.847474517858392,
        0.6104781703149048,
        0.08313895906031944,
        -0.15695714665871646
      ],
      [
        1.0997801333043942,
        1.4536280495632286,
        1.1307269640410962,
        1.102752429997836,
        1.3066912633982086,
        -0.5419980016828259,
        0.847474517858392,
        0.6104781703149048,
        0.658246328262705,
        0.8528645457215493
      ],
      [
        0.1628834006997783,
        1.4536280495632286,
        -0.022046798202916558,
        1.102752429997836,
        0.07887203752220964,
        0.6767966951531851,
        -1.1799764818028327,
        0.6104781703149048,
        -0.971224551144054,
        -0.04475473639424249
      ],
      [
        1.8805274104749066,
        -1.5747637203601643,
        -1.1748205604469293,
        1.102752429997836,
        0.07887203752220964,
        1.1643145738875897,
        0.847474517858392,
        0.6104781703149048,
        0.5623951000623074,
        0.8528645457215493
      ],
      [
        1.255929588738496,
        1.4536280495632286,
        1.1307269640410962,
        -1.1099436923956145,
        0.815563573047809,
        -0.29823906231562236,
        0.847474517858392,
        0.6104781703149048,
        -0.8753733229436564,
        1.1894717765149712
      ],
      [
        -0.14941551016842697,
        -0.06056783539846791,
        -1.1748205604469293,
        -0.0035956311988893297,
        0.3244358826974094,
        1.1643145738875897,
        0.847474517858392,
        0.6104781703149048,
        0.9458000128638978,
        1.3016741867794452
      ],
      [
        1.4120790441725979,
        -0.06056783539846791,
        1.1307269640410962,
        1.102752429997836,
        1.3066912633982086,
        0.9205556345203886,
        0.847474517858392,
        0.6104781703149048,
        -0.10856349734047575,
        1.0772693662504973
      ],
      [
        0.3190328561338816,
        1.4536280495632286,
        1.1307269640410962,
        1.102752429997836,
        -0.41225565282818993,
        0.6767966951531851,
        0.847474517858392,
        0.6104781703149048,
        0.9458000128638978,
        0.8528645457215493
      ],
      [
        0.7874812224361875,
        -1.5747637203601643,
        -0.022046798202916558,
        -0.0035956311988893297,
        0.3244358826974094,
        0.43303775578598375,
        0.847474517858392,
        0.6104781703149048,
        0.8499487846635002,
        1.4138765970439193
      ],
      [
        0.7874812224361875,
        -0.06056783539846791,
        -1.1748205604469293,
        -1.1099436923956145,
        0.20165396010980954,
        -0.05448012294842107,
        0.847474517858392,
        0.6104781703149048,
        -0.8753733229436564,
        -0.4935643774521384
      ],
      [
        1.0997801333043942,
        1.4536280495632286,
        1.1307269640410962,
        1.102752429997836,
        1.3066912633982086,
        0.43303775578598375,
        0.847474517858392,
        0.6104781703149048,
        1.5209073820662833,
        0.5162573149281274
      ],
      [
        0.9436306778702921,
        1.4536280495632286,
        1.1307269640410962,
        2.2091004911945613,
        1.3066912633982086,
        0.43303775578598375,
        0.847474517858392,
        0.6104781703149048,
        0.08313895906031944,
        1.5260790073083932
      ],
      [
        0.1628834006997783,
        -0.06056783539846791,
        1.1307269640410962,
        -1.1099436923956145,
        1.0611274182230088,
        1.1643145738875897,
        0.847474517858392,
        0.6104781703149048,
        0.08313895906031944,
        0.4040549046636534
      ],
      [
        0.9436306778702921,
        -0.06056783539846791,
        -0.022046798202916558,
        1.102752429997836,
        1.0611274182230088,
        -0.5419980016828259,
        0.847474517858392,
        0.6104781703149048,
        1.0416512410642953,
        0.5162573149281274
      ],
      [
        0.3190328561338816,
        1.4536280495632286,
        -0.022046798202916558,
        1.102752429997836,
        1.0611274182230088,
        1.1643145738875897,
        0.847474517858392,
        0.6104781703149048,
        1.137502469264693,
        1.1894717765149712
      ],
      [
        0.4751823115679836,
        1.4536280495632286,
        1.1307269640410962,
        1.102752429997836,
        0.815563573047809,
        1.1643145738875897,
        0.847474517858392,
        0.6104781703149048,
        -0.6836708665428614,
        0.9650669559860233
      ],
      [
        0.9436306778702921,
        -0.06056783539846791,
        1.1307269640410962,
        1.102752429997836,
        -0.16669180765299016,
        -1.0295158804172295,
        0.847474517858392,
        0.6104781703149048,
        -0.8753733229436564,
        -1.5033860698324042
      ],
      [
        0.4751823115679836,
        1.4536280495632286,
        -0.022046798202916558,
        1.102752429997836,
        0.9383454956354089,
        -1.273274819784432,
        0.847474517858392,
        0.6104781703149048,
        0.9458000128638978,
        0.4040549046636534
      ],
      [
        1.5682284996067,
        1.4536280495632286,
        1.1307269640410962,
        1.102752429997836,
        0.9383454956354089,
        0.9205556345203886,
        0.847474517858392,
        0.6104781703149048,
        1.0416512410642953,
        1.0772693662504973
      ],
      [
        0.3190328561338816,
        1.4536280495632286,
        1.1307269640410962,
        1.102752429997836,
        1.3066912633982086,
        1.1643145738875897,
        0.847474517858392,
        0.6104781703149048,
        1.329204925665488,
        1.5260790073083932
      ],
      [
        1.255929588738496,
        1.4536280495632286,
        1.1307269640410962,
        1.102752429997836,
        1.3066912633982086,
        1.1643145738875897,
        0.847474517858392,
        0.6104781703149048,
        1.0416512410642953,
        0.5162573149281274
      ],
      [
        -0.14941551016842697,
        1.4536280495632286,
        1.1307269640410962,
        -1.1099436923956145,
        1.0611274182230088,
        0.18927881641878241,
        -1.1799764818028327,
        0.6104781703149048,
        1.0416512410642953,
        -0.7179691979810864
      ],
      [
        1.0997801333043942,
        -1.5747637203601643,
        -0.022046798202916558,
        -0.0035956311988893297,
        0.6927816504602091,
        -0.05448012294842107,
        0.847474517858392,
        0.6104781703149048,
        -0.6836708665428614,
        0.7406621354570754
      ],
      [
        0.6313317670020855,
        -1.5747637203601643,
        -0.022046798202916558,
        1.102752429997836,
        0.07887203752220964,
        0.18927881641878241,
        0.847474517858392,
        -1.6380602102188149,
        1.2333536974650905,
        1.1894717765149712
      ],
      [
        1.5682284996067,
        1.4536280495632286,
        1.1307269640410962,
        1.102752429997836,
        1.3066912633982086,
        1.1643145738875897,
        0.847474517858392,
        0.6104781703149048,
        1.329204925665488,
        0.7406621354570754
      ],
      [
        0.6313317670020855,
        1.4536280495632286,
        1.1307269640410962,
        1.102752429997836,
        1.3066912633982086,
        1.1643145738875897,
        0.847474517858392,
        0.6104781703149048,
        1.6167586102666809,
        1.5260790073083932
      ],
      [
        -1.710910064509452,
        -1.5747637203601643,
        -1.1748205604469293,
        1.102752429997836,
        -0.9033833431785896,
        -0.29823906231562236,
        -1.1799764818028327,
        0.6104781703149048,
        1.6167586102666809,
        1.5260790073083932
      ],
      [
        0.6313317670020855,
        -1.5747637203601643,
        -0.022046798202916558,
        2.2091004911945613,
        -0.16669180765299016,
        -0.5419980016828259,
        0.847474517858392,
        0.6104781703149048,
        1.137502469264693,
        0.4040549046636534
      ],
      [
        -0.46171442103663085,
        -0.06056783539846791,
        -1.1748205604469293,
        -1.1099436923956145,
        1.0611274182230088,
        0.43303775578598375,
        -1.1799764818028327,
        0.6104781703149048,
        0.658246328262705,
        -0.3813619671876644
      ],
      [
        0.7874812224361875,
        1.4536280495632286,
        1.1307269640410962,
        1.102752429997836,
        0.07887203752220964,
        1.1643145738875897,
        0.847474517858392,
        0.6104781703149048,
        0.9458000128638978,
        1.0772693662504973
      ],
      [
        1.255929588738496,
        -0.06056783539846791,
        1.1307269640410962,
        -1.1099436923956145,
        0.3244358826974094,
        0.18927881641878241,
        0.847474517858392,
        0.6104781703149048,
        -0.10856349734047575,
        1.5260790073083932
      ],
      [
        -1.8670595199435538,
        1.4536280495632286,
        -0.022046798202916558,
        1.102752429997836,
        -0.04390988506539026,
        0.43303775578598375,
        0.847474517858392,
        0.6104781703149048,
        1.329204925665488,
        1.4138765970439193
      ],
      [
        -1.3986111536412467,
        -0.06056783539846791,
        -0.022046798202916558,
        -0.0035956311988893297,
        -1.762856801291789,
        -1.0295158804172295,
        0.847474517858392,
        0.6104781703149048,
        0.17899018726071703,
        1.1894717765149712
      ],
      [
        1.5682284996067,
        -0.06056783539846791,
        1.1307269640410962,
        1.102752429997836,
        1.3066912633982086,
        1.1643145738875897,
        0.847474517858392,
        0.6104781703149048,
        -0.012712269140078156,
        1.5260790073083932
      ],
      [
        0.9436306778702921,
        1.4536280495632286,
        1.1307269640410962,
        -0.0035956311988893297,
        1.3066912633982086,
        1.1643145738875897,
        0.847474517858392,
        -1.6380602102188149,
        -1.3546294639456444,
        0.6284597251926014
      ],
      [
        -0.14941551016842697,
        -1.5747637203601643,
        1.1307269640410962,
        2.2091004911945613,
        -0.5350375754157899,
        -0.05448012294842107,
        0.847474517858392,
        0.6104781703149048,
        1.2333536974650905,
        1.4138765970439193
      ],
      [
        1.255929588738496,
        -1.5747637203601643,
        -0.022046798202916558,
        1.102752429997836,
        -0.5350375754157899,
        0.43303775578598375,
        0.847474517858392,
        -1.6380602102188149,
        0.658246328262705,
        0.9650669559860233
      ],
      [
        1.7243779550408045,
        -0.06056783539846791,
        -0.022046798202916558,
        1.102752429997836,
        1.3066912633982086,
        1.1643145738875897,
        0.847474517858392,
        -1.6380602102188149,
        0.5623951000623074,
        1.5260790073083932
      ],
      [
        1.4120790441725979,
        -0.06056783539846791,
        -1.1748205604469293,
        1.102752429997836,
        0.5699997278726092,
        -0.05448012294842107,
        0.847474517858392,
        0.6104781703149048,
        -1.1629270075448492,
        0.8528645457215493
      ],
      [
        1.0997801333043942,
        1.4536280495632286,
        1.1307269640410962,
        2.2091004911945613,
        0.3244358826974094,
        0.43303775578598375,
        0.847474517858392,
        -1.6380602102188149,
        1.2333536974650905,
        1.1894717765149712
      ],
      [
        1.0997801333043942,
        1.4536280495632286,
        1.1307269640410962,
        1.102752429997836,
        0.07887203752220964,
        0.6767966951531851,
        0.847474517858392,
        0.6104781703149048,
        0.2748414154611146,
        0.5162573149281274
      ],
      [
        0.7874812224361875,
        -1.5747637203601643,
        1.1307269640410962,
        1.102752429997836,
        1.3066912633982086,
        1.1643145738875897,
        0.847474517858392,
        0.6104781703149048,
        0.9458000128638978,
        0.6284597251926014
      ],
      [
        0.3190328561338816,
        -1.5747637203601643,
        1.1307269640410962,
        1.102752429997836,
        1.3066912633982086,
        1.1643145738875897,
        0.847474517858392,
        0.6104781703149048,
        -0.10856349734047575,
        0.9650669559860233
      ],
      [
        0.9436306778702921,
        1.4536280495632286,
        1.1307269640410962,
        1.102752429997836,
        0.3244358826974094,
        0.6767966951531851,
        0.847474517858392,
        0.6104781703149048,
        0.658246328262705,
        1.1894717765149712
      ],
      [
        0.7874812224361875,
        1.4536280495632286,
        1.1307269640410962,
        1.102752429997836,
        1.3066912633982086,
        0.6767966951531851,
        0.847474517858392,
        0.6104781703149048,
        0.7540975564631026,
        1.5260790073083932
      ],
      [
        0.7874812224361875,
        -0.06056783539846791,
        1.1307269640410962,
        1.102752429997836,
        1.3066912633982086,
        -0.05448012294842107,
        -1.1799764818028327,
        0.6104781703149048,
        0.7540975564631026,
        0.8528645457215493
      ],
      [
        -0.3055649656025289,
        -0.06056783539846791,
        -1.1748205604469293,
        1.102752429997836,
        0.3244358826974094,
        0.43303775578598375,
        0.847474517858392,
        0.6104781703149048,
        0.7540975564631026,
        1.0772693662504973
      ],
      [
        -0.14941551016842697,
        -0.06056783539846791,
        -1.1748205604469293,
        -0.0035956311988893297,
        1.0611274182230088,
        0.43303775578598375,
        0.847474517858392,
        0.6104781703149048,
        1.329204925665488,
        1.3016741867794452
      ],
      [
        -0.3055649656025289,
        -1.5747637203601643,
        -0.022046798202916558,
        -0.0035956311988893297,
        -1.640074878704189,
        0.43303775578598375,
        -1.1799764818028327,
        0.6104781703149048,
        -0.7795220947432588,
        -0.3813619671876644
      ],
      [
        1.255929588738496,
        1.4536280495632286,
        1.1307269640410962,
        -0.0035956311988893297,
        0.6927816504602091,
        -0.05448012294842107,
        0.847474517858392,
        0.6104781703149048,
        1.808461066667476,
        0.6284597251926014
      ],
      [
        1.4120790441725979,
        1.4536280495632286,
        1.1307269640410962,
        1.102752429997836,
        1.3066912633982086,
        1.1643145738875897,
        0.847474517858392,
        0.6104781703149048,
        0.5623951000623074,
        1.0772693662504973
      ],
      [
        -1.8670595199435538,
        -0.06056783539846791,
        -1.1748205604469293,
        -0.0035956311988893297,
        -0.16669180765299016,
        -1.0295158804172295,
        -1.1799764818028327,
        0.6104781703149048,
        -0.20441472554087334,
        -0.15695714665871646
      ],
      [
        1.5682284996067,
        -0.06056783539846791,
        1.1307269640410962,
        -1.1099436923956145,
        0.815563573047809,
        0.43303775578598375,
        0.847474517858392,
        0.6104781703149048,
        0.7540975564631026,
        0.7406621354570754
      ],
      [
        0.1628834006997783,
        -0.06056783539846791,
        -0.022046798202916558,
        -1.1099436923956145,
        -0.16669180765299016,
        1.1643145738875897,
        0.847474517858392,
        0.6104781703149048,
        0.5623951000623074,
        -1.0545764287745083
      ],
      [
        -1.8670595199435538,
        -1.5747637203601643,
        -0.022046798202916558,
        -1.1099436923956145,
        0.07887203752220964,
        0.6767966951531851,
        0.847474517858392,
        0.6104781703149048,
        -0.6836708665428614,
        1.3016741867794452
      ],
      [
        -0.46171442103663085,
        1.4536280495632286,
        1.1307269640410962,
        -1.1099436923956145,
        0.815563573047809,
        0.6767966951531851,
        0.847474517858392,
        0.6104781703149048,
        0.5623951000623074,
        -0.26915955692319044
      ],
      [
        1.4120790441725979,
        -0.06056783539846791,
        1.1307269640410962,
        1.102752429997836,
        0.20165396010980954,
        1.1643145738875897,
        0.847474517858392,
        0.6104781703149048,
        0.17899018726071703,
        0.8528645457215493
      ],
      [
        0.1628834006997783,
        -0.06056783539846791,
        1.1307269640410962,
        -0.0035956311988893297,
        1.1839093408106087,
        0.6767966951531851,
        0.847474517858392,
        0.6104781703149048,
        0.3706926436615122,
        0.5162573149281274
      ],
      [
        0.6313317670020855,
        -0.06056783539846791,
        1.1307269640410962,
        1.102752429997836,
        1.3066912633982086,
        0.9205556345203886,
        0.847474517858392,
        -1.6380602102188149,
        0.2748414154611146,
        1.4138765970439193
      ],
      [
        1.0997801333043942,
        1.4536280495632286,
        1.1307269640410962,
        1.102752429997836,
        0.9383454956354089,
        1.1643145738875897,
        0.847474517858392,
        0.6104781703149048,
        0.8499487846635002,
        1.5260790073083932
      ],
      [
        1.4120790441725979,
        1.4536280495632286,
        1.1307269640410962,
        1.102752429997836,
        1.3066912633982086,
        1.1643145738875897,
        0.847474517858392,
        0.6104781703149048,
        0.7540975564631026,
        1.3016741867794452
      ],
      [
        0.1628834006997783,
        -1.5747637203601643,
        1.1307269640410962,
        -1.1099436923956145,
        1.3066912633982086,
        0.9205556345203886,
        0.847474517858392,
        0.6104781703149048,
        0.2748414154611146,
        -0.6057667877166124
      ],
      [
        -1.710910064509452,
        -0.06056783539846791,
        -0.022046798202916558,
        -1.1099436923956145,
        -1.0261652657661895,
        -0.7857569410500271,
        -1.1799764818028327,
        -1.6380602102188149,
        -1.3546294639456444,
        -0.7179691979810864
      ],
      [
        0.7874812224361875,
        1.4536280495632286,
        1.1307269640410962,
        1.102752429997836,
        1.3066912633982086,
        1.1643145738875897,
        0.847474517858392,
        0.6104781703149048,
        1.9043122948678737,
        1.0772693662504973
      ],
      [
        1.8805274104749066,
        1.4536280495632286,
        1.1307269640410962,
        1.102752429997836,
        1.1839093408106087,
        0.6767966951531851,
        0.847474517858392,
        0.6104781703149048,
        0.17899018726071703,
        0.9650669559860233
      ],
      [
        0.7874812224361875,
        -0.06056783539846791,
        -0.022046798202916558,
        -0.0035956311988893297,
        1.3066912633982086,
        1.1643145738875897,
        0.847474517858392,
        0.6104781703149048,
        0.8499487846635002,
        -0.3813619671876644
      ],
      [
        1.5682284996067,
        -0.06056783539846791,
        1.1307269640410962,
        1.102752429997836,
        1.3066912633982086,
        0.9205556345203886,
        0.847474517858392,
        0.6104781703149048,
        1.137502469264693,
        0.6284597251926014
      ],
      [
        -1.710910064509452,
        -0.06056783539846791,
        -1.1748205604469293,
        -0.0035956311988893297,
        0.3244358826974094,
        -1.5170337591516334,
        -1.1799764818028327,
        0.6104781703149048,
        -1.3546294639456444,
        -1.6155884800968783
      ],
      [
        -0.46171442103663085,
        1.4536280495632286,
        1.1307269640410962,
        -0.0035956311988893297,
        0.5699997278726092,
        1.1643145738875897,
        -1.1799764818028327,
        0.6104781703149048,
        0.7540975564631026,
        -0.7179691979810864
      ],
      [
        -0.3055649656025289,
        -1.5747637203601643,
        1.1307269640410962,
        1.102752429997836,
        1.3066912633982086,
        1.1643145738875897,
        0.847474517858392,
        0.6104781703149048,
        1.2333536974650905,
        0.7406621354570754
      ],
      [
        1.5682284996067,
        -0.06056783539846791,
        -0.022046798202916558,
        -1.1099436923956145,
        0.5699997278726092,
        0.18927881641878241,
        0.847474517858392,
        0.6104781703149048,
        -0.3961171819416685,
        1.5260790073083932
      ],
      [
        0.4751823115679836,
        1.4536280495632286,
        1.1307269640410962,
        -0.0035956311988893297,
        0.9383454956354089,
        -0.29823906231562236,
        0.847474517858392,
        0.6104781703149048,
        0.5623951000623074,
        0.7406621354570754
      ],
      [
        1.0997801333043942,
        1.4536280495632286,
        -0.022046798202916558,
        -1.1099436923956145,
        -0.41225565282818993,
        0.18927881641878241,
        0.847474517858392,
        0.6104781703149048,
        0.7540975564631026,
        -0.15695714665871646
      ],
      [
        -1.8670595199435538,
        -0.06056783539846791,
        1.1307269640410962,
        1.102752429997836,
        1.3066912633982086,
        -0.7857569410500271,
        0.847474517858392,
        -1.6380602102188149,
        1.5209073820662833,
        -1.0545764287745083
      ],
      [
        0.6313317670020855,
        -0.06056783539846791,
        1.1307269640410962,
        1.102752429997836,
        1.3066912633982086,
        0.9205556345203886,
        0.847474517858392,
        0.6104781703149048,
        0.08313895906031944,
        1.1894717765149712
      ],
      [
        0.7874812224361875,
        1.4536280495632286,
        -0.022046798202916558,
        1.102752429997836,
        0.20165396010980954,
        1.1643145738875897,
        0.847474517858392,
        0.6104781703149048,
        0.8499487846635002,
        0.9650669559860233
      ],
      [
        0.7874812224361875,
        1.4536280495632286,
        -1.1748205604469293,
        1.102752429997836,
        1.3066912633982086,
        1.1643145738875897,
        0.847474517858392,
        0.6104781703149048,
        0.9458000128638978,
        -0.7179691979810864
      ],
      [
        1.255929588738496,
        -0.06056783539846791,
        1.1307269640410962,
        1.102752429997836,
        -0.6578194980033898,
        -0.5419980016828259,
        -1.1799764818028327,
        0.6104781703149048,
        0.658246328262705,
        -0.7179691979810864
      ],
      [
        -1.5547606090753485,
        -0.06056783539846791,
        -0.022046798202916558,
        -1.1099436923956145,
        0.815563573047809,
        0.18927881641878241,
        -1.1799764818028327,
        -1.6380602102188149,
        0.658246328262705,
        -0.15695714665871646
      ],
      [
        0.9436306778702921,
        1.4536280495632286,
        1.1307269640410962,
        1.102752429997836,
        0.3244358826974094,
        1.1643145738875897,
        0.847474517858392,
        0.6104781703149048,
        -1.1629270075448492,
        -0.15695714665871646
      ],
      [
        -0.3055649656025289,
        -0.06056783539846791,
        -0.022046798202916558,
        -1.1099436923956145,
        1.3066912633982086,
        -0.29823906231562236,
        -1.1799764818028327,
        0.6104781703149048,
        0.7540975564631026,
        -1.1667788390389822
      ],
      [
        1.8805274104749066,
        -1.5747637203601643,
        1.1307269640410962,
        -1.1099436923956145,
        1.1839093408106087,
        1.1643145738875897,
        0.847474517858392,
        -1.6380602102188149,
        0.7540975564631026,
        0.4040549046636534
      ],
      [
        1.4120790441725979,
        -0.06056783539846791,
        -0.022046798202916558,
        -1.1099436923956145,
        0.815563573047809,
        1.1643145738875897,
        0.847474517858392,
        0.6104781703149048,
        -0.012712269140078156,
        0.29185249439917943
      ],
      [
        0.7874812224361875,
        1.4536280495632286,
        1.1307269640410962,
        1.102752429997836,
        1.3066912633982086,
        1.1643145738875897,
        0.847474517858392,
        0.6104781703149048,
        1.137502469264693,
        1.0772693662504973
      ],
      [
        0.3190328561338816,
        -0.06056783539846791,
        1.1307269640410962,
        -1.1099436923956145,
        1.0611274182230088,
        0.9205556345203886,
        0.847474517858392,
        0.6104781703149048,
        1.7126098384670785,
        1.1894717765149712
      ],
      [
        -1.2424616982071433,
        -1.5747637203601643,
        -1.1748205604469293,
        -1.1099436923956145,
        1.3066912633982086,
        0.43303775578598375,
        0.847474517858392,
        0.6104781703149048,
        1.137502469264693,
        0.6284597251926014
      ],
      [
        0.4751823115679836,
        -0.06056783539846791,
        1.1307269640410962,
        1.102752429997836,
        1.3066912633982086,
        1.1643145738875897,
        0.847474517858392,
        0.6104781703149048,
        1.137502469264693,
        1.3016741867794452
      ],
      [
        1.255929588738496,
        1.4536280495632286,
        1.1307269640410962,
        1.102752429997836,
        1.3066912633982086,
        1.1643145738875897,
        0.847474517858392,
        0.6104781703149048,
        1.0416512410642953,
        1.0772693662504973
      ],
      [
        -1.2424616982071433,
        -1.5747637203601643,
        -1.1748205604469293,
        1.102752429997836,
        -0.41225565282818993,
        1.1643145738875897,
        0.847474517858392,
        -1.6380602102188149,
        0.8499487846635002,
        0.8528645457215493
      ],
      [
        1.4120790441725979,
        -0.06056783539846791,
        1.1307269640410962,
        1.102752429997836,
        0.4472178052850093,
        0.18927881641878241,
        0.847474517858392,
        0.6104781703149048,
        0.17899018726071703,
        0.9650669559860233
      ],
      [
        1.5682284996067,
        1.4536280495632286,
        -1.1748205604469293,
        -1.1099436923956145,
        1.3066912633982086,
        0.9205556345203886,
        0.847474517858392,
        0.6104781703149048,
        0.4665438718619098,
        1.3016741867794452
      ],
      [
        -0.3055649656025289,
        -0.06056783539846791,
        1.1307269640410962,
        1.102752429997836,
        1.3066912633982086,
        -0.29823906231562236,
        0.847474517858392,
        0.6104781703149048,
        1.0416512410642953,
        -0.26915955692319044
      ],
      [
        0.4751823115679836,
        1.4536280495632286,
        1.1307269640410962,
        -1.1099436923956145,
        0.815563573047809,
        1.1643145738875897,
        0.847474517858392,
        0.6104781703149048,
        0.3706926436615122,
        0.8528645457215493
      ],
      [
        -0.3055649656025289,
        -0.06056783539846791,
        -1.1748205604469293,
        -1.1099436923956145,
        -1.517292956116589,
        -0.29823906231562236,
        0.847474517858392,
        0.6104781703149048,
        -1.1629270075448492,
        -0.4935643774521384
      ],
      [
        0.1628834006997783,
        -0.06056783539846791,
        1.1307269640410962,
        -1.1099436923956145,
        -0.16669180765299016,
        0.18927881641878241,
        -1.1799764818028327,
        0.6104781703149048,
        0.7540975564631026,
        -0.4935643774521384
      ],
      [
        0.6313317670020855,
        -0.06056783539846791,
        1.1307269640410962,
        2.2091004911945613,
        1.3066912633982086,
        1.1643145738875897,
        0.847474517858392,
        0.6104781703149048,
        -0.012712269140078156,
        0.8528645457215493
      ],
      [
        1.5682284996067,
        -0.06056783539846791,
        1.1307269640410962,
        -1.1099436923956145,
        -0.6578194980033898,
        0.6767966951531851,
        0.847474517858392,
        0.6104781703149048,
        1.6167586102666809,
        0.9650669559860233
      ],
      [
        -0.9301627873389394,
        1.4536280495632286,
        -0.022046798202916558,
        -1.1099436923956145,
        -0.41225565282818993,
        -0.7857569410500271,
        -1.1799764818028327,
        0.6104781703149048,
        -1.3546294639456444,
        -0.6057667877166124
      ],
      [
        1.8805274104749066,
        -0.06056783539846791,
        1.1307269640410962,
        1.102752429997836,
        0.20165396010980954,
        1.1643145738875897,
        0.847474517858392,
        -1.6380602102188149,
        1.2333536974650905,
        0.7406621354570754
      ],
      [
        0.9436306778702921,
        -0.06056783539846791,
        -0.022046798202916558,
        -1.1099436923956145,
        1.3066912633982086,
        0.43303775578598375,
        0.847474517858392,
        0.6104781703149048,
        1.2333536974650905,
        0.6284597251926014
      ],
      [
        0.3190328561338816,
        1.4536280495632286,
        1.1307269640410962,
        1.102752429997836,
        0.815563573047809,
        0.9205556345203886,
        0.847474517858392,
        0.6104781703149048,
        -0.012712269140078156,
        0.8528645457215493
      ],
      [
        0.6313317670020855,
        1.4536280495632286,
        1.1307269640410962,
        1.102752429997836,
        1.3066912633982086,
        0.43303775578598375,
        0.847474517858392,
        0.6104781703149048,
        0.8499487846635002,
        0.7406621354570754
      ],
      [
        0.6313317670020855,
        1.4536280495632286,
        1.1307269640410962,
        1.102752429997836,
        0.6927816504602091,
        0.43303775578598375,
        0.847474517858392,
        0.6104781703149048,
        0.658246328262705,
        1.5260790073083932
      ],
      [
        1.0997801333043942,
        -0.06056783539846791,
        -1.1748205604469293,
        1.102752429997836,
        0.5699997278726092,
        1.1643145738875897,
        0.847474517858392,
        0.6104781703149048,
        1.2333536974650905,
        -0.7179691979810864
      ],
      [
        1.0997801333043942,
        1.4536280495632286,
        1.1307269640410962,
        1.102752429997836,
        1.3066912633982086,
        1.1643145738875897,
        0.847474517858392,
        0.6104781703149048,
        1.2333536974650905,
        1.3016741867794452
      ],
      [
        -1.8670595199435538,
        -1.5747637203601643,
        -1.1748205604469293,
        -1.1099436923956145,
        -1.517292956116589,
        -0.05448012294842107,
        0.847474517858392,
        -1.6380602102188149,
        1.137502469264693,
        -1.2789812493034562
      ],
      [
        0.9436306778702921,
        1.4536280495632286,
        1.1307269640410962,
        1.102752429997836,
        1.3066912633982086,
        1.1643145738875897,
        0.847474517858392,
        0.6104781703149048,
        0.4665438718619098,
        0.9650669559860233
      ],
      [
        0.7874812224361875,
        -1.5747637203601643,
        1.1307269640410962,
        1.102752429997836,
        -0.16669180765299016,
        0.43303775578598375,
        -1.1799764818028327,
        0.6104781703149048,
        1.808461066667476,
        1.0772693662504973
      ],
      [
        0.6313317670020855,
        -0.06056783539846791,
        -0.022046798202916558,
        1.102752429997836,
        -0.41225565282818993,
        0.43303775578598375,
        0.847474517858392,
        0.6104781703149048,
        0.9458000128638978,
        0.7406621354570754
      ],
      [
        0.0067339452656763645,
        -1.5747637203601643,
        1.1307269640410962,
        1.102752429997836,
        1.1839093408106087,
        0.18927881641878241,
        0.847474517858392,
        0.6104781703149048,
        1.2333536974650905,
        1.1894717765149712
      ],
      [
        0.4751823115679836,
        -0.06056783539846791,
        1.1307269640410962,
        -1.1099436923956145,
        -0.28947373024059003,
        -0.5419980016828259,
        -1.1799764818028327,
        -1.6380602102188149,
        1.2333536974650905,
        1.0772693662504973
      ],
      [
        1.4120790441725979,
        -1.5747637203601643,
        -0.022046798202916558,
        -0.0035956311988893297,
        1.3066912633982086,
        0.6767966951531851,
        0.847474517858392,
        0.6104781703149048,
        -1.2587782357452468,
        1.4138765970439193
      ],
      [
        0.3190328561338816,
        1.4536280495632286,
        1.1307269640410962,
        1.102752429997836,
        1.3066912633982086,
        1.1643145738875897,
        0.847474517858392,
        0.6104781703149048,
        0.8499487846635002,
        1.3016741867794452
      ],
      [
        0.0067339452656763645,
        -0.06056783539846791,
        1.1307269640410962,
        1.102752429997836,
        0.5699997278726092,
        0.6767966951531851,
        0.847474517858392,
        0.6104781703149048,
        1.0416512410642953,
        0.9650669559860233
      ],
      [
        0.1628834006997783,
        1.4536280495632286,
        1.1307269640410962,
        1.102752429997836,
        0.5699997278726092,
        -0.5419980016828259,
        0.847474517858392,
        0.6104781703149048,
        0.658246328262705,
        0.6284597251926014
      ],
      [
        0.1628834006997783,
        -1.5747637203601643,
        -1.1748205604469293,
        -0.0035956311988893297,
        -0.7806014205909897,
        1.1643145738875897,
        0.847474517858392,
        0.6104781703149048,
        0.7540975564631026,
        1.5260790073083932
      ],
      [
        0.6313317670020855,
        -1.5747637203601643,
        -0.022046798202916558,
        -1.1099436923956145,
        1.0611274182230088,
        -0.7857569410500271,
        -1.1799764818028327,
        0.6104781703149048,
        -0.20441472554087334,
        1.0772693662504973
      ],
      [
        0.7874812224361875,
        -0.06056783539846791,
        -0.022046798202916558,
        -1.1099436923956145,
        0.4472178052850093,
        0.6767966951531851,
        0.847474517858392,
        0.6104781703149048,
        -0.3002659537412709,
        1.3016741867794452
      ],
      [
        0.7874812224361875,
        -1.5747637203601643,
        1.1307269640410962,
        2.2091004911945613,
        1.3066912633982086,
        0.9205556345203886,
        0.847474517858392,
        0.6104781703149048,
        -0.3961171819416685,
        1.4138765970439193
      ],
      [
        0.4751823115679836,
        1.4536280495632286,
        -1.1748205604469293,
        -1.1099436923956145,
        -0.6578194980033898,
        -0.5419980016828259,
        -1.1799764818028327,
        0.6104781703149048,
        1.0416512410642953,
        -0.8301716082455604
      ],
      [
        -0.3055649656025289,
        1.4536280495632286,
        1.1307269640410962,
        1.102752429997836,
        1.3066912633982086,
        0.9205556345203886,
        0.847474517858392,
        0.6104781703149048,
        1.0416512410642953,
        0.9650669559860233
      ],
      [
        1.0997801333043942,
        1.4536280495632286,
        1.1307269640410962,
        -0.0035956311988893297,
        0.6927816504602091,
        0.9205556345203886,
        0.847474517858392,
        0.6104781703149048,
        -0.5878196383424638,
        0.4040549046636534
      ],
      [
        -1.710910064509452,
        -0.06056783539846791,
        1.1307269640410962,
        -1.1099436923956145,
        -1.1489471883537894,
        -0.5419980016828259,
        0.847474517858392,
        -1.6380602102188149,
        0.8499487846635002,
        -1.2789812493034562
      ],
      [
        0.9436306778702921,
        1.4536280495632286,
        1.1307269640410962,
        1.102752429997836,
        -0.04390988506539026,
        0.18927881641878241,
        0.847474517858392,
        0.6104781703149048,
        0.4665438718619098,
        0.6284597251926014
      ],
      [
        1.255929588738496,
        -0.06056783539846791,
        -0.022046798202916558,
        -0.0035956311988893297,
        -1.1489471883537894,
        0.43303775578598375,
        0.847474517858392,
        0.6104781703149048,
        0.4665438718619098,
        -1.1667788390389822
      ],
      [
        1.7243779550408045,
        -0.06056783539846791,
        1.1307269640410962,
        1.102752429997836,
        1.0611274182230088,
        1.1643145738875897,
        0.847474517858392,
        0.6104781703149048,
        0.9458000128638978,
        1.3016741867794452
      ],
      [
        -0.6178638764707342,
        -1.5747637203601643,
        1.1307269640410962,
        1.102752429997836,
        -0.28947373024059003,
        0.6767966951531851,
        0.847474517858392,
        0.6104781703149048,
        0.2748414154611146,
        1.5260790073083932
      ],
      [
        0.9436306778702921,
        1.4536280495632286,
        1.1307269640410962,
        1.102752429997836,
        1.1839093408106087,
        0.9205556345203886,
        0.847474517858392,
        0.6104781703149048,
        1.0416512410642953,
        1.5260790073083932
      ],
      [
        0.7874812224361875,
        -0.06056783539846791,
        -1.1748205604469293,
        1.102752429997836,
        0.4472178052850093,
        0.18927881641878241,
        0.847474517858392,
        0.6104781703149048,
        -0.4919684101420661,
        0.6284597251926014
      ],
      [
        0.4751823115679836,
        -1.5747637203601643,
        1.1307269640410962,
        2.2091004911945613,
        1.3066912633982086,
        -0.05448012294842107,
        0.847474517858392,
        0.6104781703149048,
        0.5623951000623074,
        1.4138765970439193
      ],
      [
        0.6313317670020855,
        -0.06056783539846791,
        1.1307269640410962,
        1.102752429997836,
        1.3066912633982086,
        0.43303775578598375,
        0.847474517858392,
        0.6104781703149048,
        0.7540975564631026,
        0.7406621354570754
      ],
      [
        1.4120790441725979,
        1.4536280495632286,
        1.1307269640410962,
        1.102752429997836,
        0.9383454956354089,
        1.1643145738875897,
        0.847474517858392,
        0.6104781703149048,
        0.7540975564631026,
        0.8528645457215493
      ],
      [
        1.0997801333043942,
        1.4536280495632286,
        -0.022046798202916558,
        1.102752429997836,
        -0.7806014205909897,
        1.1643145738875897,
        0.847474517858392,
        -1.6380602102188149,
        0.8499487846635002,
        0.8528645457215493
      ],
      [
        0.6313317670020855,
        1.4536280495632286,
        1.1307269640410962,
        1.102752429997836,
        0.5699997278726092,
        0.6767966951531851,
        0.847474517858392,
        0.6104781703149048,
        0.8499487846635002,
        1.0772693662504973
      ],
      [
        1.8805274104749066,
        1.4536280495632286,
        1.1307269640410962,
        1.102752429997836,
        1.3066912633982086,
        1.1643145738875897,
        0.847474517858392,
        0.6104781703149048,
        0.9458000128638978,
        1.4138765970439193
      ],
      [
        -0.3055649656025289,
        1.4536280495632286,
        -0.022046798202916558,
        -1.1099436923956145,
        -0.7806014205909897,
        0.18927881641878241,
        0.847474517858392,
        0.6104781703149048,
        1.6167586102666809,
        -0.04475473639424249
      ],
      [
        1.5682284996067,
        1.4536280495632286,
        1.1307269640410962,
        1.102752429997836,
        1.3066912633982086,
        1.1643145738875897,
        0.847474517858392,
        0.6104781703149048,
        0.5623951000623074,
        1.5260790073083932
      ],
      [
        0.1628834006997783,
        -0.06056783539846791,
        -1.1748205604469293,
        -0.0035956311988893297,
        -1.640074878704189,
        -2.2483105772532403,
        -1.1799764818028327,
        -1.6380602102188149,
        -1.3546294639456444,
        -0.6057667877166124
      ],
      [
        0.9436306778702921,
        -0.06056783539846791,
        -0.022046798202916558,
        1.102752429997836,
        0.6927816504602091,
        0.6767966951531851,
        0.847474517858392,
        0.6104781703149048,
        0.2748414154611146,
        1.5260790073083932
      ],
      [
        -0.14941551016842697,
        1.4536280495632286,
        1.1307269640410962,
        1.102752429997836,
        1.3066912633982086,
        0.43303775578598375,
        0.847474517858392,
        0.6104781703149048,
        0.5623951000623074,
        0.8528645457215493
      ],
      [
        -0.46171442103663085,
        -0.06056783539846791,
        1.1307269640410962,
        -0.0035956311988893297,
        -0.5350375754157899,
        0.43303775578598375,
        0.847474517858392,
        0.6104781703149048,
        1.329204925665488,
        -0.8301716082455604
      ],
      [
        0.3190328561338816,
        -0.06056783539846791,
        1.1307269640410962,
        -1.1099436923956145,
        1.3066912633982086,
        0.6767966951531851,
        0.847474517858392,
        0.6104781703149048,
        1.137502469264693,
        0.5162573149281274
      ],
      [
        0.9436306778702921,
        1.4536280495632286,
        1.1307269640410962,
        1.102752429997836,
        1.0611274182230088,
        0.9205556345203886,
        0.847474517858392,
        0.6104781703149048,
        0.08313895906031944,
        1.1894717765149712
      ],
      [
        1.4120790441725979,
        -0.06056783539846791,
        1.1307269640410962,
        1.102752429997836,
        1.3066912633982086,
        1.1643145738875897,
        0.847474517858392,
        0.6104781703149048,
        2.0001635230682715,
        1.5260790073083932
      ],
      [
        -0.14941551016842697,
        1.4536280495632286,
        -0.022046798202916558,
        -1.1099436923956145,
        -0.9033833431785896,
        -0.05448012294842107,
        -1.1799764818028327,
        0.6104781703149048,
        0.7540975564631026,
        -0.8301716082455604
      ],
      [
        0.0067339452656763645,
        -0.06056783539846791,
        1.1307269640410962,
        -1.1099436923956145,
        0.3244358826974094,
        -0.29823906231562236,
        0.847474517858392,
        0.6104781703149048,
        2.0001635230682715,
        1.5260790073083932
      ],
      [
        -0.46171442103663085,
        -0.06056783539846791,
        1.1307269640410962,
        1.102752429997836,
        1.0611274182230088,
        1.1643145738875897,
        0.847474517858392,
        0.6104781703149048,
        1.2333536974650905,
        1.1894717765149712
      ],
      [
        0.7874812224361875,
        -0.06056783539846791,
        -0.022046798202916558,
        -0.0035956311988893297,
        1.3066912633982086,
        0.9205556345203886,
        0.847474517858392,
        0.6104781703149048,
        0.658246328262705,
        0.6284597251926014
      ],
      [
        -0.14941551016842697,
        -0.06056783539846791,
        -0.022046798202916558,
        1.102752429997836,
        -1.1489471883537894,
        1.1643145738875897,
        -1.1799764818028327,
        0.6104781703149048,
        0.3706926436615122,
        1.0772693662504973
      ],
      [
        -0.46171442103663085,
        -0.06056783539846791,
        1.1307269640410962,
        -1.1099436923956145,
        0.20165396010980954,
        0.9205556345203886,
        0.847474517858392,
        0.6104781703149048,
        0.658246328262705,
        1.0772693662504973
      ],
      [
        0.1628834006997783,
        -1.5747637203601643,
        1.1307269640410962,
        1.102752429997836,
        1.3066912633982086,
        0.9205556345203886,
        0.847474517858392,
        0.6104781703149048,
        1.137502469264693,
        0.8528645457215493
      ],
      [
        0.7874812224361875,
        1.4536280495632286,
        1.1307269640410962,
        1.102752429997836,
        1.3066912633982086,
        1.1643145738875897,
        0.847474517858392,
        0.6104781703149048,
        1.808461066667476,
        0.8528645457215493
      ],
      [
        0.7874812224361875,
        1.4536280495632286,
        1.1307269640410962,
        1.102752429997836,
        1.3066912633982086,
        0.9205556345203886,
        0.847474517858392,
        0.6104781703149048,
        1.5209073820662833,
        0.6284597251926014
      ],
      [
        1.4120790441725979,
        -0.06056783539846791,
        -1.1748205604469293,
        -0.0035956311988893297,
        1.0611274182230088,
        -0.7857569410500271,
        -1.1799764818028327,
        0.6104781703149048,
        1.0416512410642953,
        -0.9423740185100343
      ],
      [
        -1.8670595199435538,
        1.4536280495632286,
        1.1307269640410962,
        -0.0035956311988893297,
        0.5699997278726092,
        0.9205556345203886,
        0.847474517858392,
        0.6104781703149048,
        1.5209073820662833,
        0.9650669559860233
      ],
      [
        1.5682284996067,
        1.4536280495632286,
        1.1307269640410962,
        1.102752429997836,
        1.3066912633982086,
        1.1643145738875897,
        0.847474517858392,
        0.6104781703149048,
        0.7540975564631026,
        1.3016741867794452
      ],
      [
        0.6313317670020855,
        1.4536280495632286,
        1.1307269640410962,
        1.102752429997836,
        1.3066912633982086,
        0.18927881641878241,
        0.847474517858392,
        0.6104781703149048,
        1.137502469264693,
        1.4138765970439193
      ],
      [
        0.1628834006997783,
        1.4536280495632286,
        1.1307269640410962,
        -1.1099436923956145,
        1.3066912633982086,
        1.1643145738875897,
        0.847474517858392,
        0.6104781703149048,
        0.8499487846635002,
        0.9650669559860233
      ],
      [
        0.4751823115679836,
        -1.5747637203601643,
        -2.3275943226909424,
        1.102752429997836,
        -0.41225565282818993,
        1.1643145738875897,
        0.847474517858392,
        -1.6380602102188149,
        -0.6836708665428614,
        -1.1667788390389822
      ],
      [
        -0.3055649656025289,
        -0.06056783539846791,
        1.1307269640410962,
        -0.0035956311988893297,
        1.3066912633982086,
        1.1643145738875897,
        0.847474517858392,
        0.6104781703149048,
        0.4665438718619098,
        1.1894717765149712
      ],
      [
        -1.8670595199435538,
        -1.5747637203601643,
        1.1307269640410962,
        -1.1099436923956145,
        -1.3945110335289892,
        -0.29823906231562236,
        0.847474517858392,
        -1.6380602102188149,
        -0.4919684101420661,
        -1.3911836595679303
      ],
      [
        1.255929588738496,
        1.4536280495632286,
        1.1307269640410962,
        1.102752429997836,
        1.3066912633982086,
        1.1643145738875897,
        0.847474517858392,
        0.6104781703149048,
        1.0416512410642953,
        1.0772693662504973
      ],
      [
        1.0997801333043942,
        -0.06056783539846791,
        1.1307269640410962,
        1.102752429997836,
        1.3066912633982086,
        0.6767966951531851,
        0.847474517858392,
        0.6104781703149048,
        1.2333536974650905,
        1.5260790073083932
      ],
      [
        -0.46171442103663085,
        1.4536280495632286,
        -1.1748205604469293,
        -0.0035956311988893297,
        0.20165396010980954,
        -0.7857569410500271,
        0.847474517858392,
        -1.6380602102188149,
        0.658246328262705,
        -0.9423740185100343
      ],
      [
        1.255929588738496,
        1.4536280495632286,
        1.1307269640410962,
        -1.1099436923956145,
        1.1839093408106087,
        1.1643145738875897,
        0.847474517858392,
        0.6104781703149048,
        0.9458000128638978,
        0.6284597251926014
      ],
      [
        0.7874812224361875,
        -1.5747637203601643,
        -1.1748205604469293,
        -1.1099436923956145,
        -0.7806014205909897,
        1.1643145738875897,
        0.847474517858392,
        0.6104781703149048,
        -1.3546294639456444,
        -0.9423740185100343
      ],
      [
        -1.8670595199435538,
        -1.5747637203601643,
        1.1307269640410962,
        1.102752429997836,
        0.6927816504602091,
        0.9205556345203886,
        0.847474517858392,
        -1.6380602102188149,
        -0.3961171819416685,
        0.7406621354570754
      ],
      [
        -0.46171442103663085,
        -1.5747637203601643,
        1.1307269640410962,
        -1.1099436923956145,
        -0.16669180765299016,
        0.18927881641878241,
        0.847474517858392,
        0.6104781703149048,
        0.08313895906031944,
        0.7406621354570754
      ],
      [
        0.6313317670020855,
        1.4536280495632286,
        1.1307269640410962,
        1.102752429997836,
        1.3066912633982086,
        1.1643145738875897,
        0.847474517858392,
        0.6104781703149048,
        0.658246328262705,
        1.0772693662504973
      ],
      [
        0.4751823115679836,
        1.4536280495632286,
        1.1307269640410962,
        1.102752429997836,
        1.3066912633982086,
        1.1643145738875897,
        0.847474517858392,
        0.6104781703149048,
        0.5623951000623074,
        1.5260790073083932
      ],
      [
        0.0067339452656763645,
        -0.06056783539846791,
        -1.1748205604469293,
        -1.1099436923956145,
        -0.7806014205909897,
        -1.0295158804172295,
        -1.1799764818028327,
        0.6104781703149048,
        -0.971224551144054,
        -0.8301716082455604
      ],
      [
        -0.46171442103663085,
        -0.06056783539846791,
        -0.022046798202916558,
        -0.0035956311988893297,
        1.3066912633982086,
        1.1643145738875897,
        0.847474517858392,
        0.6104781703149048,
        0.3706926436615122,
        -0.8301716082455604
      ],
      [
        0.9436306778702921,
        -0.06056783539846791,
        -0.022046798202916558,
        1.102752429997836,
        1.0611274182230088,
        0.18927881641878241,
        0.847474517858392,
        0.6104781703149048,
        0.8499487846635002,
        1.3016741867794452
      ],
      [
        -0.3055649656025289,
        -0.06056783539846791,
        -0.022046798202916558,
        -0.0035956311988893297,
        1.3066912633982086,
        -0.05448012294842107,
        0.847474517858392,
        0.6104781703149048,
        -0.971224551144054,
        1.0772693662504973
      ],
      [
        0.9436306778702921,
        1.4536280495632286,
        1.1307269640410962,
        -1.1099436923956145,
        1.3066912633982086,
        1.1643145738875897,
        0.847474517858392,
        0.6104781703149048,
        0.8499487846635002,
        0.9650669559860233
      ],
      [
        0.9436306778702921,
        1.4536280495632286,
        1.1307269640410962,
        1.102752429997836,
        0.6927816504602091,
        0.9205556345203886,
        0.847474517858392,
        0.6104781703149048,
        0.658246328262705,
        1.4138765970439193
      ],
      [
        -0.14941551016842697,
        -0.06056783539846791,
        -0.022046798202916558,
        -0.0035956311988893297,
        -0.6578194980033898,
        0.6767966951531851,
        -1.1799764818028327,
        0.6104781703149048,
        0.4665438718619098,
        1.1894717765149712
      ],
      [
        1.4120790441725979,
        1.4536280495632286,
        -0.022046798202916558,
        1.102752429997836,
        1.0611274182230088,
        1.1643145738875897,
        0.847474517858392,
        -1.6380602102188149,
        1.329204925665488,
        0.29185249439917943
      ],
      [
        -1.710910064509452,
        -0.06056783539846791,
        -0.022046798202916558,
        -0.0035956311988893297,
        0.20165396010980954,
        -2.2483105772532403,
        0.847474517858392,
        0.6104781703149048,
        1.137502469264693,
        1.1894717765149712
      ],
      [
        1.4120790441725979,
        1.4536280495632286,
        1.1307269640410962,
        1.102752429997836,
        0.9383454956354089,
        0.18927881641878241,
        0.847474517858392,
        0.6104781703149048,
        -0.012712269140078156,
        1.3016741867794452
      ],
      [
        -0.46171442103663085,
        -0.06056783539846791,
        -1.1748205604469293,
        -0.0035956311988893297,
        -1.2717291109413893,
        -1.273274819784432,
        -1.1799764818028327,
        0.6104781703149048,
        -1.3546294639456444,
        -1.1667788390389822
      ],
      [
        0.0067339452656763645,
        -0.06056783539846791,
        -0.022046798202916558,
        -1.1099436923956145,
        0.20165396010980954,
        0.18927881641878241,
        0.847474517858392,
        0.6104781703149048,
        -1.3546294639456444,
        0.8528645457215493
      ],
      [
        1.255929588738496,
        -0.06056783539846791,
        -1.1748205604469293,
        1.102752429997836,
        0.4472178052850093,
        -0.05448012294842107,
        0.847474517858392,
        0.6104781703149048,
        1.9043122948678737,
        1.3016741867794452
      ],
      [
        0.9436306778702921,
        1.4536280495632286,
        1.1307269640410962,
        1.102752429997836,
        1.3066912633982086,
        1.1643145738875897,
        0.847474517858392,
        -1.6380602102188149,
        -0.012712269140078156,
        0.6284597251926014
      ],
      [
        1.255929588738496,
        1.4536280495632286,
        1.1307269640410962,
        1.102752429997836,
        1.0611274182230088,
        0.6767966951531851,
        0.847474517858392,
        0.6104781703149048,
        1.5209073820662833,
        1.0772693662504973
      ],
      [
        0.3190328561338816,
        1.4536280495632286,
        1.1307269640410962,
        1.102752429997836,
        1.3066912633982086,
        0.6767966951531851,
        0.847474517858392,
        0.6104781703149048,
        1.2333536974650905,
        1.4138765970439193
      ],
      [
        -0.14941551016842697,
        -0.06056783539846791,
        -0.022046798202916558,
        -1.1099436923956145,
        -0.04390988506539026,
        -0.05448012294842107,
        0.847474517858392,
        0.6104781703149048,
        0.9458000128638978,
        -0.6057667877166124
      ],
      [
        -0.14941551016842697,
        -1.5747637203601643,
        -1.1748205604469293,
        1.102752429997836,
        -0.6578194980033898,
        0.6767966951531851,
        0.847474517858392,
        0.6104781703149048,
        0.658246328262705,
        -0.8301716082455604
      ],
      [
        -1.3986111536412467,
        -1.5747637203601643,
        1.1307269640410962,
        1.102752429997836,
        1.1839093408106087,
        1.1643145738875897,
        0.847474517858392,
        0.6104781703149048,
        0.8499487846635002,
        -0.6057667877166124
      ],
      [
        0.7874812224361875,
        1.4536280495632286,
        1.1307269640410962,
        -0.0035956311988893297,
        1.3066912633982086,
        1.1643145738875897,
        0.847474517858392,
        0.6104781703149048,
        1.2333536974650905,
        0.29185249439917943
      ],
      [
        1.0997801333043942,
        -1.5747637203601643,
        1.1307269640410962,
        1.102752429997836,
        0.9383454956354089,
        -0.7857569410500271,
        0.847474517858392,
        -1.6380602102188149,
        0.9458000128638978,
        0.6284597251926014
      ],
      [
        1.0997801333043942,
        -0.06056783539846791,
        -0.022046798202916558,
        -0.0035956311988893297,
        0.6927816504602091,
        1.1643145738875897,
        0.847474517858392,
        0.6104781703149048,
        -1.3546294639456444,
        -0.9423740185100343
      ],
      [
        0.6313317670020855,
        1.4536280495632286,
        1.1307269640410962,
        1.102752429997836,
        1.3066912633982086,
        1.1643145738875897,
        0.847474517858392,
        0.6104781703149048,
        0.9458000128638978,
        0.9650669559860233
      ],
      [
        1.5682284996067,
        1.4536280495632286,
        1.1307269640410962,
        1.102752429997836,
        0.9383454956354089,
        1.1643145738875897,
        0.847474517858392,
        0.6104781703149048,
        -1.3546294639456444,
        1.0772693662504973
      ],
      [
        0.9436306778702921,
        1.4536280495632286,
        1.1307269640410962,
        1.102752429997836,
        1.3066912633982086,
        1.1643145738875897,
        0.847474517858392,
        0.6104781703149048,
        0.17899018726071703,
        1.0772693662504973
      ],
      [
        -0.14941551016842697,
        -0.06056783539846791,
        -1.1748205604469293,
        -1.1099436923956145,
        -0.41225565282818993,
        -0.7857569410500271,
        -1.1799764818028327,
        0.6104781703149048,
        0.5623951000623074,
        -0.4935643774521384
      ],
      [
        1.7243779550408045,
        -0.06056783539846791,
        1.1307269640410962,
        1.102752429997836,
        0.4472178052850093,
        1.1643145738875897,
        0.847474517858392,
        0.6104781703149048,
        0.2748414154611146,
        1.0772693662504973
      ],
      [
        -1.5547606090753485,
        -0.06056783539846791,
        -1.1748205604469293,
        -1.1099436923956145,
        0.3244358826974094,
        -1.0295158804172295,
        -1.1799764818028327,
        0.6104781703149048,
        -0.3002659537412709,
        -0.9423740185100343
      ],
      [
        0.9436306778702921,
        1.4536280495632286,
        1.1307269640410962,
        1.102752429997836,
        1.3066912633982086,
        0.6767966951531851,
        0.847474517858392,
        0.6104781703149048,
        1.0416512410642953,
        0.9650669559860233
      ],
      [
        -0.14941551016842697,
        -0.06056783539846791,
        1.1307269640410962,
        -0.0035956311988893297,
        -1.3945110335289892,
        0.6767966951531851,
        0.847474517858392,
        0.6104781703149048,
        0.2748414154611146,
        0.9650669559860233
      ],
      [
        0.4751823115679836,
        1.4536280495632286,
        1.1307269640410962,
        1.102752429997836,
        0.4472178052850093,
        1.1643145738875897,
        0.847474517858392,
        0.6104781703149048,
        0.5623951000623074,
        1.0772693662504973
      ],
      [
        -0.14941551016842697,
        -0.06056783539846791,
        1.1307269640410962,
        -1.1099436923956145,
        -1.2717291109413893,
        -0.05448012294842107,
        -1.1799764818028327,
        0.6104781703149048,
        0.3706926436615122,
        -0.26915955692319044
      ],
      [
        0.6313317670020855,
        1.4536280495632286,
        -0.022046798202916558,
        -1.1099436923956145,
        -1.0261652657661895,
        0.18927881641878241,
        0.847474517858392,
        0.6104781703149048,
        0.8499487846635002,
        0.9650669559860233
      ],
      [
        1.4120790441725979,
        -0.06056783539846791,
        -0.022046798202916558,
        -1.1099436923956145,
        0.3244358826974094,
        -1.5170337591516334,
        0.847474517858392,
        0.6104781703149048,
        0.7540975564631026,
        -1.0545764287745083
      ],
      [
        1.5682284996067,
        -1.5747637203601643,
        -1.1748205604469293,
        1.102752429997836,
        0.3244358826974094,
        0.43303775578598375,
        0.847474517858392,
        0.6104781703149048,
        0.3706926436615122,
        1.3016741867794452
      ],
      [
        -0.3055649656025289,
        -0.06056783539846791,
        -0.022046798202916558,
        -1.1099436923956145,
        0.9383454956354089,
        0.6767966951531851,
        0.847474517858392,
        0.6104781703149048,
        1.329204925665488,
        0.7406621354570754
      ],
      [
        1.255929588738496,
        1.4536280495632286,
        -0.022046798202916558,
        1.102752429997836,
        0.5699997278726092,
        0.43303775578598375,
        0.847474517858392,
        0.6104781703149048,
        1.137502469264693,
        1.0772693662504973
      ],
      [
        0.7874812224361875,
        -0.06056783539846791,
        1.1307269640410962,
        1.102752429997836,
        0.4472178052850093,
        0.9205556345203886,
        0.847474517858392,
        0.6104781703149048,
        0.5623951000623074,
        -0.7179691979810864
      ],
      [
        0.9436306778702921,
        -0.06056783539846791,
        1.1307269640410962,
        -1.1099436923956145,
        1.3066912633982086,
        0.9205556345203886,
        0.847474517858392,
        0.6104781703149048,
        1.6167586102666809,
        0.4040549046636534
      ],
      [
        -0.9301627873389394,
        1.4536280495632286,
        1.1307269640410962,
        1.102752429997836,
        1.3066912633982086,
        0.18927881641878241,
        0.847474517858392,
        0.6104781703149048,
        0.7540975564631026,
        1.4138765970439193
      ],
      [
        1.5682284996067,
        1.4536280495632286,
        1.1307269640410962,
        2.2091004911945613,
        0.20165396010980954,
        -0.29823906231562236,
        0.847474517858392,
        0.6104781703149048,
        1.7126098384670785,
        1.0772693662504973
      ],
      [
        1.0997801333043942,
        1.4536280495632286,
        1.1307269640410962,
        1.102752429997836,
        1.3066912633982086,
        0.9205556345203886,
        0.847474517858392,
        0.6104781703149048,
        0.658246328262705,
        1.0772693662504973
      ],
      [
        1.0997801333043942,
        -0.06056783539846791,
        1.1307269640410962,
        -0.0035956311988893297,
        -0.04390988506539026,
        -0.5419980016828259,
        -1.1799764818028327,
        0.6104781703149048,
        1.329204925665488,
        1.4138765970439193
      ],
      [
        1.0997801333043942,
        1.4536280495632286,
        1.1307269640410962,
        1.102752429997836,
        0.5699997278726092,
        0.43303775578598375,
        0.847474517858392,
        0.6104781703149048,
        0.8499487846635002,
        0.4040549046636534
      ],
      [
        1.5682284996067,
        -0.06056783539846791,
        1.1307269640410962,
        1.102752429997836,
        1.3066912633982086,
        1.1643145738875897,
        0.847474517858392,
        0.6104781703149048,
        0.08313895906031944,
        1.5260790073083932
      ],
      [
        0.6313317670020855,
        1.4536280495632286,
        1.1307269640410962,
        1.102752429997836,
        0.9383454956354089,
        0.18927881641878241,
        0.847474517858392,
        0.6104781703149048,
        1.6167586102666809,
        0.9650669559860233
      ],
      [
        0.9436306778702921,
        1.4536280495632286,
        -0.022046798202916558,
        -1.1099436923956145,
        1.3066912633982086,
        0.6767966951531851,
        0.847474517858392,
        0.6104781703149048,
        1.137502469264693,
        0.7406621354570754
      ],
      [
        0.6313317670020855,
        -0.06056783539846791,
        1.1307269640410962,
        1.102752429997836,
        1.3066912633982086,
        0.6767966951531851,
        0.847474517858392,
        0.6104781703149048,
        0.9458000128638978,
        1.5260790073083932
      ],
      [
        0.3190328561338816,
        -0.06056783539846791,
        -0.022046798202916558,
        1.102752429997836,
        1.3066912633982086,
        -0.05448012294842107,
        0.847474517858392,
        0.6104781703149048,
        0.4665438718619098,
        1.5260790073083932
      ],
      [
        0.1628834006997783,
        -1.5747637203601643,
        1.1307269640410962,
        -1.1099436923956145,
        -0.41225565282818993,
        -1.5170337591516334,
        0.847474517858392,
        0.6104781703149048,
        1.5209073820662833,
        0.5162573149281274
      ],
      [
        0.9436306778702921,
        -1.5747637203601643,
        -1.1748205604469293,
        1.102752429997836,
        0.5699997278726092,
        0.9205556345203886,
        0.847474517858392,
        0.6104781703149048,
        -0.3961171819416685,
        -1.1667788390389822
      ],
      [
        1.5682284996067,
        -0.06056783539846791,
        1.1307269640410962,
        1.102752429997836,
        1.3066912633982086,
        0.9205556345203886,
        0.847474517858392,
        0.6104781703149048,
        0.4665438718619098,
        1.3016741867794452
      ],
      [
        -0.46171442103663085,
        -1.5747637203601643,
        -0.022046798202916558,
        -1.1099436923956145,
        -1.0261652657661895,
        -0.7857569410500271,
        -1.1799764818028327,
        0.6104781703149048,
        -1.3546294639456444,
        -0.15695714665871646
      ],
      [
        0.6313317670020855,
        1.4536280495632286,
        1.1307269640410962,
        1.102752429997836,
        1.3066912633982086,
        1.1643145738875897,
        0.847474517858392,
        0.6104781703149048,
        1.0416512410642953,
        0.9650669559860233
      ],
      [
        0.3190328561338816,
        1.4536280495632286,
        1.1307269640410962,
        1.102752429997836,
        1.3066912633982086,
        1.1643145738875897,
        0.847474517858392,
        0.6104781703149048,
        1.2333536974650905,
        1.0772693662504973
      ],
      [
        0.6313317670020855,
        1.4536280495632286,
        1.1307269640410962,
        1.102752429997836,
        0.9383454956354089,
        0.6767966951531851,
        0.847474517858392,
        0.6104781703149048,
        1.5209073820662833,
        0.6284597251926014
      ],
      [
        0.0067339452656763645,
        -0.06056783539846791,
        -0.022046798202916558,
        -1.1099436923956145,
        -0.16669180765299016,
        -1.7607926985188358,
        0.847474517858392,
        0.6104781703149048,
        -1.3546294639456444,
        -0.3813619671876644
      ],
      [
        0.3190328561338816,
        1.4536280495632286,
        1.1307269640410962,
        1.102752429997836,
        0.07887203752220964,
        -0.05448012294842107,
        0.847474517858392,
        0.6104781703149048,
        0.8499487846635002,
        -1.0545764287745083
      ],
      [
        0.9436306778702921,
        -0.06056783539846791,
        1.1307269640410962,
        1.102752429997836,
        0.815563573047809,
        1.1643145738875897,
        0.847474517858392,
        0.6104781703149048,
        -0.3002659537412709,
        1.5260790073083932
      ],
      [
        1.0997801333043942,
        -0.06056783539846791,
        -1.1748205604469293,
        1.102752429997836,
        0.20165396010980954,
        -1.0295158804172295,
        0.847474517858392,
        0.6104781703149048,
        -0.4919684101420661,
        1.0772693662504973
      ],
      [
        0.6313317670020855,
        -0.06056783539846791,
        -0.022046798202916558,
        2.2091004911945613,
        0.815563573047809,
        0.43303775578598375,
        0.847474517858392,
        0.6104781703149048,
        1.808461066667476,
        -0.4935643774521384
      ],
      [
        0.7874812224361875,
        1.4536280495632286,
        1.1307269640410962,
        -0.0035956311988893297,
        -0.04390988506539026,
        1.1643145738875897,
        0.847474517858392,
        0.6104781703149048,
        0.9458000128638978,
        1.3016741867794452
      ],
      [
        0.6313317670020855,
        -0.06056783539846791,
        1.1307269640410962,
        -0.0035956311988893297,
        1.1839093408106087,
        0.9205556345203886,
        0.847474517858392,
        0.6104781703149048,
        0.8499487846635002,
        1.1894717765149712
      ],
      [
        1.4120790441725979,
        -0.06056783539846791,
        -0.022046798202916558,
        -1.1099436923956145,
        -0.6578194980033898,
        0.18927881641878241,
        -1.1799764818028327,
        -1.6380602102188149,
        -1.3546294639456444,
        -0.9423740185100343
      ],
      [
        0.6313317670020855,
        1.4536280495632286,
        1.1307269640410962,
        1.102752429997836,
        1.3066912633982086,
        1.1643145738875897,
        0.847474517858392,
        0.6104781703149048,
        1.6167586102666809,
        1.1894717765149712
      ],
      [
        0.1628834006997783,
        -0.06056783539846791,
        1.1307269640410962,
        1.102752429997836,
        0.20165396010980954,
        -0.29823906231562236,
        0.847474517858392,
        0.6104781703149048,
        0.08313895906031944,
        -1.0545764287745083
      ],
      [
        1.0997801333043942,
        -0.06056783539846791,
        1.1307269640410962,
        -0.0035956311988893297,
        -0.04390988506539026,
        0.18927881641878241,
        0.847474517858392,
        0.6104781703149048,
        0.8499487846635002,
        0.8528645457215493
      ],
      [
        0.4751823115679836,
        1.4536280495632286,
        1.1307269640410962,
        1.102752429997836,
        1.3066912633982086,
        1.1643145738875897,
        0.847474517858392,
        0.6104781703149048,
        1.7126098384670785,
        1.5260790073083932
      ],
      [
        0.6313317670020855,
        1.4536280495632286,
        1.1307269640410962,
        1.102752429997836,
        1.3066912633982086,
        1.1643145738875897,
        0.847474517858392,
        0.6104781703149048,
        0.08313895906031944,
        0.7406621354570754
      ],
      [
        -0.14941551016842697,
        1.4536280495632286,
        1.1307269640410962,
        1.102752429997836,
        0.5699997278726092,
        0.6767966951531851,
        0.847474517858392,
        0.6104781703149048,
        0.2748414154611146,
        1.1894717765149712
      ],
      [
        1.0997801333043942,
        -0.06056783539846791,
